{"learner":{"attributes":{"best_iteration":"17","best_score":"0.6918599409301106","scikit_learn":"{\"_estimator_type\": \"classifier\"}"},"feature_names":[],"feature_types":[],"gradient_booster":{"model":{"cats":{"enc":[],"feature_segments":[],"sorted_idx":[]},"gbtree_model_param":{"num_parallel_tree":"1","num_trees":"58"},"iteration_indptr":[0,1,2,3,4,5,6,7,8,9,10,11,12,13,14,15,16,17,18,19,20,21,22,23,24,25,26,27,28,29,30,31,32,33,34,35,36,37,38,39,40,41,42,43,44,45,46,47,48,49,50,51,52,53,54,55,56,57,58],"tree_info":[0,0,0,0,0,0,0,0,0,0,0,0,0,0,0,0,0,0,0,0,0,0,0,0,0,0,0,0,0,0,0,0,0,0,0,0,0,0,0,0,0,0,0,0,0,0,0,0,0,0,0,0,0,0,0,0,0,0],"trees":[{"base_weights":[5.255248E-2,9.4479874E-2,-8.016851E-1,1.4455104E-1,-5.705275E-1,-2.804674E-2,-3.471584E-4,5.554062E-4,1.1481476E-2,-2.108097E-2,4.2859575E-4],"categories":[],"categories_nodes":[],"categories_segments":[],"categories_sizes":[],"default_left":[0,0,0,0,0,0,0,0,0,0,0],"id":0,"left_children":[1,3,5,7,9,-1,-1,-1,-1,-1,-1],"loss_changes":[9.268206E0,8.316803E0,5.445144E0,1.1523823E1,5.185421E0,0E0,0E0,0E0,0E0,0E0,0E0],"parents":[2147483647,0,0,1,1,2,2,3,3,4,4],"right_children":[2,4,6,8,10,-1,-1,-1,-1,-1,-1],"split_conditions":[1.7972348E0,9.1713554E-1,5.4838353E-1,4.4880402E-1,4.7753865E-1,-2.804674E-2,-3.471584E-4,5.554062E-4,1.1481476E-2,-2.108097E-2,4.2859575E-4],"split_indices":[0,45,4,10,37,0,0,0,0,0,0],"split_type":[0,0,0,0,0,0,0,0,0,0,0],"sum_hessian":[2.570627E2,2.4647499E2,1.05877075E1,2.3051785E2,1.5957133E1,5.2182827E0,5.3694253E0,1.8277132E2,4.774654E1,8.277995E0,7.679138E0],"tree_param":{"num_deleted":"0","num_feature":"60","num_nodes":"11","size_leaf_vector":"1"}},{"base_weights":[-4.022501E-2,-2.987817E-4,-2.275576E-2,5.521752E-2,-6.4942217E-1,-2.1311264E-4,7.789514E-3,-2.116745E-2,7.094922E-3],"categories":[],"categories_nodes":[],"categories_segments":[],"categories_sizes":[],"default_left":[0,0,0,0,0,0,0,0,0],"id":1,"left_children":[1,3,-1,5,7,-1,-1,-1,-1],"loss_changes":[1.10311985E1,9.090766E0,0E0,5.1252146E0,8.837844E0,0E0,0E0,0E0,0E0],"parents":[2147483647,0,0,1,1,3,3,4,4],"right_children":[2,4,-1,6,8,-1,-1,-1,-1],"split_conditions":[1.9727585E0,9.1713554E-1,-2.275576E-2,5.60839E-1,3.8035792E-1,-2.1311264E-4,7.789514E-3,-2.116745E-2,7.094922E-3],"split_indices":[0,45,0,10,35,0,0,0,0],"split_type":[0,0,0,0,0,0,0,0,0],"sum_hessian":[2.5413727E2,2.4679659E2,7.340685E0,2.2840367E2,1.839291E1,1.9164008E2,3.676359E1,1.3118694E1,5.2742157E0],"tree_param":{"num_deleted":"0","num_feature":"60","num_nodes":"9","size_leaf_vector":"1"}},{"base_weights":[-1.6097412E-2,1.6267817E-2,-1.9792667E-2,-1.5727127E-2,1.7806267E-2,1.1402753E-2,-1.4200355E-3],"categories":[],"categories_nodes":[],"categories_segments":[],"categories_sizes":[],"default_left":[0,0,0,0,0,0,0],"id":2,"left_children":[1,3,-1,5,-1,-1,-1],"loss_changes":[8.380019E0,7.2413745E0,0E0,7.9475927E0,0E0,0E0,0E0],"parents":[2147483647,0,0,1,1,3,3],"right_children":[2,4,-1,6,-1,-1,-1],"split_conditions":[2.059757E0,1.4057214E0,-1.9792667E-2,-1.1456505E0,1.7806267E-2,1.1402753E-2,-1.4200355E-3],"split_indices":[0,23,0,35,0,0,0],"split_type":[0,0,0,0,0,0,0],"sum_hessian":[2.590586E2,2.5200166E2,7.0569444E0,2.4435818E2,7.643479E0,1.962836E1,2.2472981E2],"tree_param":{"num_deleted":"0","num_feature":"60","num_nodes":"7","size_leaf_vector":"1"}},{"base_weights":[3.2871112E-2,8.976085E-2,-9.556351E-1,2.0963771E-2,5.914843E-2,-2.6669174E-2,-4.0239547E-3,1.761124E-3,-1.5358199E-2],"categories":[],"categories_nodes":[],"categories_segments":[],"categories_sizes":[],"default_left":[0,0,0,0,0,0,0,0,0],"id":3,"left_children":[1,3,5,-1,7,-1,-1,-1,-1],"loss_changes":[1.482291E1,7.098607E0,3.452218E0,0E0,5.851158E0,0E0,0E0,0E0,0E0],"parents":[2147483647,0,0,1,1,2,2,4,4],"right_children":[2,4,6,-1,8,-1,-1,-1,-1],"split_conditions":[1.6185975E0,-9.5811474E-1,7.4656606E-2,2.0963771E-2,5.122098E-1,-2.6669174E-2,-4.0239547E-3,1.761124E-3,-1.5358199E-2],"split_indices":[0,27,20,0,50,0,0,0,0],"split_type":[0,0,0,0,0,0,0,0,0],"sum_hessian":[2.6210623E2,2.4927567E2,1.2830581E1,6.0205517E0,2.4325511E2,7.649594E0,5.1809874E0,2.3651015E2,6.744962E0],"tree_param":{"num_deleted":"0","num_feature":"60","num_nodes":"9","size_leaf_vector":"1"}},{"base_weights":[4.160528E-2,1.6934201E-1,-3.1080207E-1,2.3062865E-1,-1.7569518E-2,5.6631255E-1,-4.8609746E-1,1.1121537E-2,2.067169E-3,1.9137638E-2,2.0419782E-4,3.9000716E-3,-1.2248222E-2],"categories":[],"categories_nodes":[],"categories_segments":[],"categories_sizes":[],"default_left":[0,0,0,0,0,0,0,0,0,0,0,0,0],"id":4,"left_children":[1,3,5,7,-1,9,11,-1,-1,-1,-1,-1,-1],"loss_changes":[1.1637045E1,1.24131775E1,1.0956076E1,7.30774E0,0E0,2.4433837E0,5.2457933E0,0E0,0E0,0E0,0E0,0E0,0E0],"parents":[2147483647,0,0,1,1,2,2,3,3,5,5,6,6],"right_children":[2,4,6,8,-1,10,12,-1,-1,-1,-1,-1,-1],"split_conditions":[4.2162263E-1,6.6133916E-1,-1.2959821E0,-3.0015567E-1,-1.7569518E-2,-6.2175274E-1,-9.1836894E-1,1.1121537E-2,2.067169E-3,1.9137638E-2,2.0419782E-4,3.9000716E-3,-1.2248222E-2],"split_indices":[32,38,1,0,0,41,47,0,0,0,0,0,0],"split_type":[0,0,0,0,0,0,0,0,0,0,0,0,0],"sum_hessian":[2.5573032E2,1.8858057E2,6.714975E1,1.7940047E2,9.180095E0,1.0484997E1,5.6664757E1,4.8681755E1,1.3071872E2,5.365708E0,5.1192894E0,8.551361E0,4.8113396E1],"tree_param":{"num_deleted":"0","num_feature":"60","num_nodes":"13","size_leaf_vector":"1"}},{"base_weights":[-2.4707993E-2,-3.2362455E-1,8.2312204E-2,-7.8342974E-2,-8.056328E-1,1.6137874E-1,-6.248894E-1,-5.3429115E-3,9.296146E-3,-3.6412792E-3,-2.2337768E-2,1.1588352E-2,3.8374925E-4,-2.2081206E-2,4.785112E-3],"categories":[],"categories_nodes":[],"categories_segments":[],"categories_sizes":[],"default_left":[0,0,0,0,0,0,0,0,0,0,0,0,0,0,0],"id":5,"left_children":[1,3,5,7,9,11,13,-1,-1,-1,-1,-1,-1,-1,-1],"loss_changes":[8.27099E0,7.8369436E0,1.0675506E1,4.9838734E0,3.8935442E0,1.010497E1,8.463284E0,0E0,0E0,0E0,0E0,0E0,0E0,0E0,0E0],"parents":[2147483647,0,0,1,1,2,2,3,3,4,4,5,5,6,6],"right_children":[2,4,6,8,10,12,14,-1,-1,-1,-1,-1,-1,-1,-1],"split_conditions":[-5.4692584E-1,3.7590382E-3,9.1713554E-1,-5.0473845E-1,-4.5598555E-1,-1.17130615E-1,1.1572798E0,-5.3429115E-3,9.296146E-3,-3.6412792E-3,-2.2337768E-2,1.1588352E-2,3.8374925E-4,-2.2081206E-2,4.785112E-3],"split_indices":[10,1,45,3,47,57,3,0,0,0,0,0,0,0,0],"split_type":[0,0,0,0,0,0,0,0,0,0,0,0,0,0,0],"sum_hessian":[2.546678E2,6.6709145E1,1.8795866E2,4.5573143E1,2.1135998E1,1.7028975E2,1.7668917E1,3.458839E1,1.0984753E1,7.98939E0,1.3146609E1,4.178261E1,1.2850714E2,1.1210046E1,6.4588704E0],"tree_param":{"num_deleted":"0","num_feature":"60","num_nodes":"15","size_leaf_vector":"1"}},{"base_weights":[-1.485957E-2,6.8586534E-1,-5.2427433E-2,2.2030136E-2,1.627955E-4,3.611903E-2,-4.2544132E-1,2.1327974E-3,-7.5206845E-3,-1.4490747E-2,-3.7464409E-3],"categories":[],"categories_nodes":[],"categories_segments":[],"categories_sizes":[],"default_left":[0,0,0,0,0,0,0,0,0,0,0],"id":6,"left_children":[1,3,5,-1,-1,7,9,-1,-1,-1,-1],"loss_changes":[6.7736535E0,3.503489E0,8.249397E0,0E0,0E0,5.859324E0,3.0699625E0,0E0,0E0,0E0,0E0],"parents":[2147483647,0,0,1,1,2,2,5,5,6,6],"right_children":[2,4,6,-1,-1,8,10,-1,-1,-1,-1],"split_conditions":[-1.3938845E0,-1.1948704E0,6.1757386E-1,2.2030136E-2,1.627955E-4,4.2987016E-1,-4.279372E-1,2.1327974E-3,-7.5206845E-3,-1.4490747E-2,-3.7464409E-3],"split_indices":[48,10,30,0,0,50,42,0,0,0,0],"split_type":[0,0,0,0,0,0,0,0,0,0,0],"sum_hessian":[2.5737183E2,1.1575981E1,2.4579584E2,6.4568124E0,5.1191688E0,1.9941185E2,4.6383987E1,1.715371E2,2.7874756E1,1.89222E1,2.7461788E1],"tree_param":{"num_deleted":"0","num_feature":"60","num_nodes":"11","size_leaf_vector":"1"}},{"base_weights":[2.5975143E-3,4.4271197E-2,-8.561962E-1,-4.8129283E-2,3.322054E-1,-2.4096088E-2,-5.9018265E-3,2.8863843E-3,-5.056066E-3,-4.5170668E-3,1.2723405E-2],"categories":[],"categories_nodes":[],"categories_segments":[],"categories_sizes":[],"default_left":[0,0,0,0,0,0,0,0,0,0,0],"id":7,"left_children":[1,3,5,7,9,-1,-1,-1,-1,-1,-1],"loss_changes":[9.1937685E0,6.6732607E0,1.5655012E0,7.5119753E0,1.0609722E1,0E0,0E0,0E0,0E0,0E0,0E0],"parents":[2147483647,0,0,1,1,2,2,3,3,4,4],"right_children":[2,4,6,8,10,-1,-1,-1,-1,-1,-1],"split_conditions":[1.7972348E0,4.8032907E-1,7.1700865E-1,-1.7156556E-1,-3.2748765E-1,-2.4096088E-2,-5.9018265E-3,2.8863843E-3,-5.056066E-3,-4.5170668E-3,1.2723405E-2],"split_indices":[0,21,22,57,46,0,0,0,0,0,0],"split_type":[0,0,0,0,0,0,0,0,0,0,0],"sum_hessian":[2.5720172E2,2.4682182E2,1.0379897E1,1.8740903E2,5.9412792E1,5.175985E0,5.2039123E0,9.643948E1,9.096954E1,2.091192E1,3.8500874E1],"tree_param":{"num_deleted":"0","num_feature":"60","num_nodes":"11","size_leaf_vector":"1"}},{"base_weights":[-8.21437E-3,-4.5103483E-2,1.8827816E-2,-9.081088E-3,-2.2024658E-2,6.1087974E-4,-1.6346352E-2],"categories":[],"categories_nodes":[],"categories_segments":[],"categories_sizes":[],"default_left":[0,0,0,0,0,0,0],"id":8,"left_children":[1,3,-1,5,-1,-1,-1],"loss_changes":[8.978413E0,9.339006E0,0E0,7.958543E0,0E0,0E0,0E0],"parents":[2147483647,0,0,1,1,3,3],"right_children":[2,4,-1,6,-1,-1,-1],"split_conditions":[1.4057214E0,1.7972348E0,1.8827816E-2,1.0583813E0,-2.2024658E-2,6.1087974E-4,-1.6346352E-2],"split_indices":[23,0,0,23,0,0,0],"split_type":[0,0,0,0,0,0,0],"sum_hessian":[2.568255E2,2.4874911E2,8.076389E0,2.4214497E2,6.60414E0,2.320272E2,1.0117776E1],"tree_param":{"num_deleted":"0","num_feature":"60","num_nodes":"7","size_leaf_vector":"1"}},{"base_weights":[-8.085511E-3,9.256175E-2,-3.889532E-1,5.678838E-1,9.746454E-3,2.3846582E-1,-5.7167274E-1,2.3694388E-3,1.9052893E-2,-6.9694244E-4,1.9300058E-2,-6.8102404E-3,1.416187E-2,3.4663351E-3,-1.4814118E-2],"categories":[],"categories_nodes":[],"categories_segments":[],"categories_sizes":[],"default_left":[0,0,0,0,0,0,0,0,0,0,0,0,0,0,0],"id":9,"left_children":[1,3,5,7,9,11,13,-1,-1,-1,-1,-1,-1,-1,-1],"loss_changes":[9.884435E0,7.8890886E0,6.4405775E0,4.822936E0,7.6244817E0,3.9634166E0,5.61913E0,0E0,0E0,0E0,0E0,0E0,0E0,0E0,0E0],"parents":[2147483647,0,0,1,1,2,2,3,3,4,4,5,5,6,6],"right_children":[2,4,6,8,10,12,14,-1,-1,-1,-1,-1,-1,-1,-1],"split_conditions":[6.13203E-1,-8.984113E-1,-1.8463805E0,-3.719278E-1,1.2795261E0,8.17217E-1,-1.161529E0,2.3694388E-3,1.9052893E-2,-6.9694244E-4,1.9300058E-2,-6.8102404E-3,1.416187E-2,3.4663351E-3,-1.4814118E-2],"split_indices":[32,22,18,32,22,31,9,0,0,0,0,0,0,0,0],"split_type":[0,0,0,0,0,0,0,0,0,0,0,0,0,0,0],"sum_hessian":[2.5378651E2,2.0132613E2,5.246038E1,2.8299988E1,1.7302614E2,1.1543602E1,4.091678E1,1.4138051E1,1.4161937E1,1.6653993E2,6.4862127E0,5.2115583E0,6.332044E0,7.395732E0,3.352105E1],"tree_param":{"num_deleted":"0","num_feature":"60","num_nodes":"15","size_leaf_vector":"1"}},{"base_weights":[-2.7777262E-2,1.662467E-2,-6.756836E-2,-4.1736832E-1,1.469115E-2,-1.8357337E-3,-1.5366347E-2,1.5361226E-2,-8.146601E-4],"categories":[],"categories_nodes":[],"categories_segments":[],"categories_sizes":[],"default_left":[0,0,0,0,0,0,0,0,0],"id":10,"left_children":[1,-1,3,5,7,-1,-1,-1,-1],"loss_changes":[8.828718E0,0E0,7.241891E0,5.2331877E0,8.628313E0,0E0,0E0,0E0,0E0],"parents":[2147483647,0,0,2,2,3,3,4,4],"right_children":[2,-1,4,6,8,-1,-1,-1,-1],"split_conditions":[-9.067494E-1,1.662467E-2,-5.532877E-1,-3.7378928E-1,-1.1940384E0,-1.8357337E-3,-1.5366347E-2,1.5361226E-2,-8.146601E-4],"split_indices":[27,0,42,38,35,0,0,0,0],"split_type":[0,0,0,0,0,0,0,0,0],"sum_hessian":[2.576798E2,9.920094E0,2.4775972E2,4.6354565E1,2.0140515E2,2.5249693E1,2.1104872E1,1.2665463E1,1.8873969E2],"tree_param":{"num_deleted":"0","num_feature":"60","num_nodes":"9","size_leaf_vector":"1"}},{"base_weights":[-3.9970357E-2,-3.1047314E-3,-7.2647095E-1,3.707522E-1,-6.537393E-2,-2.0393554E-2,-3.935825E-3,1.6690507E-3,2.1430368E-2,-3.3735617E-3,4.3380214E-3],"categories":[],"categories_nodes":[],"categories_segments":[],"categories_sizes":[],"default_left":[0,0,0,0,0,0,0,0,0,0,0],"id":11,"left_children":[1,3,5,7,9,-1,-1,-1,-1,-1,-1],"loss_changes":[6.4550643E0,5.7640066E0,1.5373921E0,6.797613E0,6.2941327E0,0E0,0E0,0E0,0E0,0E0,0E0],"parents":[2147483647,0,0,1,1,2,2,3,3,4,4],"right_children":[2,4,6,8,10,-1,-1,-1,-1,-1,-1],"split_conditions":[6.6133916E-1,-8.3313733E-1,-7.744534E-1,-1.0401776E0,4.8670444E-1,-2.0393554E-2,-3.935825E-3,1.6690507E-3,2.1430368E-2,-3.3735617E-3,4.3380214E-3],"split_indices":[38,12,28,12,21,0,0,0,0,0,0],"split_type":[0,0,0,0,0,0,0,0,0,0,0],"sum_hessian":[2.580153E2,2.4650317E2,1.1512132E1,3.379029E1,2.1271288E2,6.3347077E0,5.1774235E0,2.5307446E1,8.482847E0,1.565539E2,5.6158978E1],"tree_param":{"num_deleted":"0","num_feature":"60","num_nodes":"11","size_leaf_vector":"1"}},{"base_weights":[3.0919291E-2,2.2374922E-2,-0E0,1.8470491E-1,-1.4552984E-1,1.5191092E-2,1.2693718E-3,-1.0934882E-2,1.0969944E-3],"categories":[],"categories_nodes":[],"categories_segments":[],"categories_sizes":[],"default_left":[0,0,0,0,0,0,0,0,0],"id":12,"left_children":[1,-1,3,5,7,-1,-1,-1,-1],"loss_changes":[8.843046E0,0E0,6.989517E0,7.796912E0,1.1798846E1,0E0,0E0,0E0,0E0],"parents":[2147483647,0,0,2,2,3,3,4,4],"right_children":[2,-1,4,6,8,-1,-1,-1,-1],"split_conditions":[-9.5811474E-1,2.2374922E-2,-1.0394774E-1,-8.864654E-1,8.517038E-2,1.5191092E-2,1.2693718E-3,-1.0934882E-2,1.0969944E-3],"split_indices":[27,0,43,8,13,0,0,0,0],"split_type":[0,0,0,0,0,0,0,0,0],"sum_hessian":[2.627353E2,5.7672634E0,2.5696802E2,1.1318463E2,1.437834E2,1.81222E1,9.506243E1,4.727726E1,9.650614E1],"tree_param":{"num_deleted":"0","num_feature":"60","num_nodes":"9","size_leaf_vector":"1"}},{"base_weights":[8.672588E-3,5.6451045E-2,-7.8269947E-1,1.03952356E-1,-5.9601045E-1,-2.309903E-2,-6.6916534E-4,5.1126454E-4,1.44091165E-2,-2.178153E-2,3.7204027E-3],"categories":[],"categories_nodes":[],"categories_segments":[],"categories_sizes":[],"default_left":[0,0,0,0,0,0,0,0,0,0,0],"id":13,"left_children":[1,3,5,7,9,-1,-1,-1,-1,-1,-1],"loss_changes":[9.937293E0,7.782692E0,3.9335346E0,1.1216784E1,6.997421E0,0E0,0E0,0E0,0E0,0E0,0E0],"parents":[2147483647,0,0,1,1,2,2,3,3,4,4],"right_children":[2,4,6,8,10,-1,-1,-1,-1,-1,-1],"split_conditions":[1.5535247E0,9.1713554E-1,8.3651227E-1,5.3315216E-1,1.7638229E0,-2.309903E-2,-6.6916534E-4,5.1126454E-4,1.44091165E-2,-2.178153E-2,3.7204027E-3],"split_indices":[0,45,23,25,44,0,0,0,0,0,0],"split_type":[0,0,0,0,0,0,0,0,0,0,0],"sum_hessian":[2.6244635E2,2.4899596E2,1.3450388E1,2.3348817E2,1.5507783E1,8.309475E0,5.1409135E0,2.0875078E2,2.4737398E1,9.267527E0,6.2402563E0],"tree_param":{"num_deleted":"0","num_feature":"60","num_nodes":"11","size_leaf_vector":"1"}},{"base_weights":[-4.8093207E-2,-9.319325E-3,-1.8216439E-2,1.8730728E-1,-1.8497919E-1,-2.2244633E-3,9.416574E-3,-9.096897E-3,1.8598636E-3],"categories":[],"categories_nodes":[],"categories_segments":[],"categories_sizes":[],"default_left":[0,0,0,0,0,0,0,0,0],"id":14,"left_children":[1,3,-1,5,7,-1,-1,-1,-1],"loss_changes":[8.671762E0,8.827395E0,0E0,1.0308535E1,1.027121E1,0E0,0E0,0E0,0E0],"parents":[2147483647,0,0,1,1,3,3,4,4],"right_children":[2,4,-1,6,8,-1,-1,-1,-1],"split_conditions":[1.7972348E0,-3.3754088E-2,-1.8216439E-2,-5.1546746E-1,3.8570166E-1,-2.2244633E-3,9.416574E-3,-9.096897E-3,1.8598636E-3],"split_indices":[0,8,0,10,11,0,0,0,0],"split_type":[0,0,0,0,0,0,0,0,0],"sum_hessian":[2.6224176E2,2.5258003E2,9.661711E0,1.1872767E2,1.3385237E2,5.8019375E1,6.070829E1,6.7706055E1,6.614632E1],"tree_param":{"num_deleted":"0","num_feature":"60","num_nodes":"9","size_leaf_vector":"1"}},{"base_weights":[-2.4973411E-2,9.190449E-3,-1.9426538E-2,-1.8679487E-2,1.8248811E-2,7.409256E-3,-1.8141129E-3],"categories":[],"categories_nodes":[],"categories_segments":[],"categories_sizes":[],"default_left":[0,0,0,0,0,0,0],"id":15,"left_children":[1,3,-1,5,-1,-1,-1],"loss_changes":[8.587218E0,6.5278563E0,0E0,6.9233356E0,0E0,0E0,0E0],"parents":[2147483647,0,0,1,1,3,3],"right_children":[2,4,-1,6,-1,-1,-1],"split_conditions":[1.9727585E0,1.4057214E0,-1.9426538E-2,-9.015117E-1,1.8248811E-2,7.409256E-3,-1.8141129E-3],"split_indices":[0,23,0,57,0,0,0],"split_type":[0,0,0,0,0,0,0],"sum_hessian":[2.5922452E2,2.5147314E2,7.7513824E0,2.4521005E2,6.263085E0,3.700141E1,2.0820865E2],"tree_param":{"num_deleted":"0","num_feature":"60","num_nodes":"7","size_leaf_vector":"1"}},{"base_weights":[9.168863E-3,1.7351452E-2,-2.5378454E-2,1.6231082E-1,-1.6033232E-1,5.550464E-3,-6.0961545E-3,-8.298969E-3,1.1264492E-3],"categories":[],"categories_nodes":[],"categories_segments":[],"categories_sizes":[],"default_left":[0,0,0,0,0,0,0,0,0],"id":16,"left_children":[1,-1,3,5,7,-1,-1,-1,-1],"loss_changes":[7.8611794E0,0E0,6.395174E0,5.786972E0,8.209166E0,0E0,0E0,0E0,0E0],"parents":[2147483647,0,0,2,2,3,3,4,4],"right_children":[2,-1,4,6,8,-1,-1,-1,-1],"split_conditions":[-9.1323113E-1,1.7351452E-2,-1.520886E-1,1.1452901E0,2.3450041E-1,5.550464E-3,-6.0961545E-3,-8.298969E-3,1.1264492E-3],"split_indices":[27,0,22,59,13,0,0,0,0],"split_type":[0,0,0,0,0,0,0,0,0],"sum_hessian":[2.582094E2,8.7584915E0,2.4945091E2,1.0374722E2,1.4570369E2,8.396711E1,1.9780111E1,6.66707E1,7.903299E1],"tree_param":{"num_deleted":"0","num_feature":"60","num_nodes":"9","size_leaf_vector":"1"}},{"base_weights":[-3.8753707E-2,3.152868E-2,-5.03782E-1,-2.4960381E-1,1.5497082E-1,-9.8324466E-1,-7.277507E-2,-7.844418E-3,8.621708E-3,9.54475E-3,-5.167116E-4,-3.0513516E-2,-5.626537E-3,1.283801E-2,-1.163012E-2],"categories":[],"categories_nodes":[],"categories_segments":[],"categories_sizes":[],"default_left":[0,0,0,0,0,0,0,0,0,0,0,0,0,0,0],"id":17,"left_children":[1,3,5,7,9,11,13,-1,-1,-1,-1,-1,-1,-1,-1],"loss_changes":[8.702694E0,8.023191E0,6.956337E0,7.078078E0,9.471424E0,5.2757673E0,7.890984E0,0E0,0E0,0E0,0E0,0E0,0E0,0E0,0E0],"parents":[2147483647,0,0,1,1,2,2,3,3,4,4,5,5,6,6],"right_children":[2,4,6,8,10,12,14,-1,-1,-1,-1,-1,-1,-1,-1],"split_conditions":[4.1713658E-1,-5.7878864E-1,4.8032907E-1,9.785381E-1,-3.3754088E-2,4.8394114E-1,9.9656713E-1,-7.844418E-3,8.621708E-3,9.54475E-3,-5.167116E-4,-3.0513516E-2,-5.626537E-3,1.283801E-2,-1.163012E-2],"split_indices":[50,10,21,32,8,53,20,0,0,0,0,0,0,0,0],"split_type":[0,0,0,0,0,0,0,0,0,0,0,0,0,0,0],"sum_hessian":[2.6187708E2,2.2842902E2,3.3448048E1,6.88588E1,1.5957022E2,1.47593975E1,1.8688648E1,5.7638508E1,1.1220296E1,5.676446E1,1.02805756E2,7.2120023E0,7.547395E0,7.4854426E0,1.1203206E1],"tree_param":{"num_deleted":"0","num_feature":"60","num_nodes":"15","size_leaf_vector":"1"}},{"base_weights":[2.1076018E-2,-1.0712804E-2,1.8977523E-2,3.408014E-2,-6.589216E-1,-7.621467E-4,8.101161E-3,-2.673465E-2,-0E0],"categories":[],"categories_nodes":[],"categories_segments":[],"categories_sizes":[],"default_left":[0,0,0,0,0,0,0,0,0],"id":18,"left_children":[1,3,-1,5,7,-1,-1,-1,-1],"loss_changes":[7.907637E0,7.5442986E0,0E0,6.5092335E0,7.3042903E0,0E0,0E0,0E0,0E0],"parents":[2147483647,0,0,1,1,3,3,4,4],"right_children":[2,4,-1,6,8,-1,-1,-1,-1],"split_conditions":[1.4057214E0,9.575198E-1,1.8977523E-2,5.60839E-1,-1.1801389E-1,-7.621467E-4,8.101161E-3,-2.673465E-2,-0E0],"split_indices":[23,45,0,10,39,0,0,0,0],"split_type":[0,0,0,0,0,0,0,0,0],"sum_hessian":[2.6132465E2,2.5394487E2,7.379797E0,2.3864368E2,1.5301181E1,2.0055907E2,3.808461E1,6.6702204E0,8.6309595E0],"tree_param":{"num_deleted":"0","num_feature":"60","num_nodes":"9","size_leaf_vector":"1"}},{"base_weights":[5.068989E-2,1.4580153E-1,-2.9175615E-1,-4.0451372E-1,1.9833025E-1,3.363824E-1,-5.68026E-1,1.0869266E-2,-1.782921E-2,-3.905275E-4,7.1761874E-3,-4.174582E-3,1.1832946E-2,4.4328985E-3,-1.5086459E-2],"categories":[],"categories_nodes":[],"categories_segments":[],"categories_sizes":[],"default_left":[0,0,0,0,0,0,0,0,0,0,0,0,0,0,0],"id":19,"left_children":[1,3,5,7,9,11,13,-1,-1,-1,-1,-1,-1,-1,-1],"loss_changes":[8.494453E0,5.999432E0,1.0137837E1,9.115262E0,6.6302295E0,2.7551217E0,6.2169237E0,0E0,0E0,0E0,0E0,0E0,0E0,0E0,0E0],"parents":[2147483647,0,0,1,1,2,2,3,3,4,4,5,5,6,6],"right_children":[2,4,6,8,10,12,14,-1,-1,-1,-1,-1,-1,-1,-1],"split_conditions":[6.1757386E-1,-9.69968E-1,-9.732457E-1,-2.2380347E0,-3.5702267E-1,4.31972E-1,-9.029814E-1,1.0869266E-2,-1.782921E-2,-3.905275E-4,7.1761874E-3,-4.174582E-3,1.1832946E-2,4.4328985E-3,-1.5086459E-2],"split_indices":[30,21,14,41,27,37,47,0,0,0,0,0,0,0,0],"split_type":[0,0,0,0,0,0,0,0,0,0,0,0,0,0,0],"sum_hessian":[2.5801437E2,2.0294688E2,5.5067486E1,1.6559116E1,1.8638777E2,1.6555925E1,3.8511562E1,5.4557834E0,1.11033325E1,7.922269E1,1.0716508E2,5.1800013E0,1.1375924E1,7.1432314E0,3.136833E1],"tree_param":{"num_deleted":"0","num_feature":"60","num_nodes":"15","size_leaf_vector":"1"}},{"base_weights":[-1.059498E-2,7.881336E-1,-6.9869176E-2,6.2206406E-3,2.5874542E-2,-1.4087713E-2,-6.653639E-1,4.1885087E-3,-3.1729569E-3,-2.7426234E-2,2.5322612E-3],"categories":[],"categories_nodes":[],"categories_segments":[],"categories_sizes":[],"default_left":[0,0,0,0,0,0,0,0,0,0,0],"id":20,"left_children":[1,3,5,-1,-1,7,9,-1,-1,-1,-1],"loss_changes":[1.1724033E1,3.2785273E0,7.609579E0,0E0,0E0,6.9702787E0,1.1437327E1,0E0,0E0,0E0,0E0],"parents":[2147483647,0,0,1,1,2,2,5,5,6,6],"right_children":[2,4,6,-1,-1,8,10,-1,-1,-1,-1],"split_conditions":[-1.4312387E0,6.4915545E-2,9.1713554E-1,6.2206406E-3,2.5874542E-2,-1.8003887E-1,-1.1801389E-1,4.1885087E-3,-3.1729569E-3,-2.7426234E-2,2.5322612E-3],"split_indices":[22,55,45,0,0,39,39,0,0,0,0],"split_type":[0,0,0,0,0,0,0,0,0,0,0],"sum_hessian":[2.4666605E2,1.5591607E1,2.3107445E2,9.420982E0,6.1706247E0,2.1291733E2,1.8157116E1,8.2951035E1,1.299663E2,9.119961E0,9.037154E0],"tree_param":{"num_deleted":"0","num_feature":"60","num_nodes":"11","size_leaf_vector":"1"}},{"base_weights":[-6.652042E-3,2.7178347E-1,-1.2650888E-1,3.8868052E-1,-3.898719E-1,-1.6283793E-2,-5.3123087E-1,3.2136529E-3,1.569439E-2,-2.1016074E-2,6.905491E-3,-1.9386458E-3,2.241837E-2,5.454817E-3,-1.3672723E-2],"categories":[],"categories_nodes":[],"categories_segments":[],"categories_sizes":[],"default_left":[0,0,0,0,0,0,0,0,0,0,0,0,0,0,0],"id":21,"left_children":[1,3,5,7,9,11,13,-1,-1,-1,-1,-1,-1,-1,-1],"loss_changes":[8.573124E0,6.193342E0,7.950984E0,5.6736555E0,6.5477214E0,1.3178989E1,5.030307E0,0E0,0E0,0E0,0E0,0E0,0E0,0E0,0E0],"parents":[2147483647,0,0,1,1,2,2,3,3,4,4,5,5,6,6],"right_children":[2,4,6,8,10,12,14,-1,-1,-1,-1,-1,-1,-1,-1],"split_conditions":[-3.4731174E-1,3.2342696E-1,5.251045E-1,-2.1873014E-1,1.5463556E-1,1.2716104E0,-1.3152403E0,3.2136529E-3,1.569439E-2,-2.1016074E-2,6.905491E-3,-1.9386458E-3,2.241837E-2,5.454817E-3,-1.3672723E-2],"split_indices":[0,56,55,7,49,3,9,0,0,0,0,0,0,0,0],"split_type":[0,0,0,0,0,0,0,0,0,0,0,0,0,0,0],"sum_hessian":[2.545002E2,7.563715E1,1.7886304E2,6.499908E1,1.0638073E1,1.4209482E2,3.676822E1,4.28296E1,2.2169477E1,5.370083E0,5.2679906E0,1.3408946E2,8.005356E0,5.513693E0,3.1254524E1],"tree_param":{"num_deleted":"0","num_feature":"60","num_nodes":"15","size_leaf_vector":"1"}},{"base_weights":[-7.8298375E-3,7.7571636E-1,-5.49159E-2,4.0654917E-3,2.2423718E-2,-9.407224E-2,7.136345E-1,-1.124307E-3,-2.0390905E-2,3.930829E-3,2.1211352E-2],"categories":[],"categories_nodes":[],"categories_segments":[],"categories_sizes":[],"default_left":[0,0,0,0,0,0,0,0,0,0,0],"id":22,"left_children":[1,3,5,-1,-1,7,9,-1,-1,-1,-1],"loss_changes":[9.504513E0,2.3448086E0,7.4025083E0,0E0,0E0,7.9973383E0,1.6338239E0,0E0,0E0,0E0,0E0],"parents":[2147483647,0,0,1,1,2,2,5,5,6,6],"right_children":[2,4,6,-1,-1,8,10,-1,-1,-1,-1],"split_conditions":[-1.5246834E0,1.9065645E-2,7.4204296E-1,4.0654917E-3,2.2423718E-2,1.7972348E0,2.5480753E-2,-1.124307E-3,-2.0390905E-2,3.930829E-3,2.1211352E-2],"split_indices":[23,46,25,0,0,0,12,0,0,0,0],"split_type":[0,0,0,0,0,0,0,0,0,0,0],"sum_hessian":[2.5731464E2,1.30900135E1,2.4422461E2,5.9867625E0,7.1032505E0,2.3382329E2,1.0401328E1,2.263188E2,7.5044775E0,5.2935634E0,5.107765E0],"tree_param":{"num_deleted":"0","num_feature":"60","num_nodes":"11","size_leaf_vector":"1"}},{"base_weights":[-7.0439954E-3,2.0156505E-2,-3.8818598E-2,-1.5493377E-1,2.2702245E-1,-2.3403062E-2,-2.1118145E-3,-5.7189814E-3,7.6010036E-3],"categories":[],"categories_nodes":[],"categories_segments":[],"categories_sizes":[],"default_left":[0,0,0,0,0,0,0,0,0],"id":23,"left_children":[1,-1,3,5,7,-1,-1,-1,-1],"loss_changes":[8.212831E0,0E0,7.79438E0,8.44395E0,6.187358E0,0E0,0E0,0E0,0E0],"parents":[2147483647,0,0,2,2,3,3,4,4],"right_children":[2,-1,4,6,8,-1,-1,-1,-1],"split_conditions":[-9.473281E-1,2.0156505E-2,4.2966712E-1,-9.3875486E-1,-5.5533046E-1,-2.3403062E-2,-2.1118145E-3,-5.7189814E-3,7.6010036E-3],"split_indices":[27,0,46,55,40,0,0,0,0],"split_type":[0,0,0,0,0,0,0,0,0],"sum_hessian":[2.5587221E2,6.225768E0,2.4964644E2,1.7458188E2,7.506456E1,6.3718066E0,1.6821007E2,1.6723106E1,5.8341457E1],"tree_param":{"num_deleted":"0","num_feature":"60","num_nodes":"9","size_leaf_vector":"1"}},{"base_weights":[-9.6412925E-3,7.150752E-2,-4.9381182E-1,1.1866E-1,-7.154041E-1,-0E0,-9.5765567E-1,1.2161644E-2,6.621684E-4,-2.1109061E-2,-3.118696E-3,-8.772655E-3,1.547209E-2,-2.2939809E-2,-7.12752E-3],"categories":[],"categories_nodes":[],"categories_segments":[],"categories_sizes":[],"default_left":[0,0,0,0,0,0,0,0,0,0,0,0,0,0,0],"id":24,"left_children":[1,3,5,7,9,11,13,-1,-1,-1,-1,-1,-1,-1,-1],"loss_changes":[1.0192839E1,8.22674E0,8.451244E0,8.653372E0,1.9514656E0,7.1451426E0,1.3385811E0,0E0,0E0,0E0,0E0,0E0,0E0,0E0,0E0],"parents":[2147483647,0,0,1,1,2,2,3,3,4,4,5,5,6,6],"right_children":[2,4,6,8,10,12,14,-1,-1,-1,-1,-1,-1,-1,-1],"split_conditions":[7.212429E-1,6.6133916E-1,3.5018206E-1,-8.265249E-1,-8.1608784E-1,7.921621E-1,5.0483155E-1,1.2161644E-2,6.621684E-4,-2.1109061E-2,-3.118696E-3,-8.772655E-3,1.547209E-2,-2.2939809E-2,-7.12752E-3],"split_indices":[10,38,1,12,49,7,49,0,0,0,0,0,0,0,0],"split_type":[0,0,0,0,0,0,0,0,0,0,0,0,0,0,0],"sum_hessian":[2.5496631E2,2.1919675E2,3.576955E1,2.0818646E2,1.1010297E1,1.814476E1,1.762479E1,2.9352442E1,1.7883401E2,5.854186E0,5.1561103E0,1.2067363E1,6.0773973E0,1.217896E1,5.4458313E0],"tree_param":{"num_deleted":"0","num_feature":"60","num_nodes":"15","size_leaf_vector":"1"}},{"base_weights":[-1.672386E-2,2.0797446E-2,-1.830061E-2,1.9663032E-2,-8.319852E-3,1.0796591E-2,-9.799664E-4],"categories":[],"categories_nodes":[],"categories_segments":[],"categories_sizes":[],"default_left":[0,0,0,0,0,0,0],"id":25,"left_children":[1,3,-1,-1,5,-1,-1],"loss_changes":[9.145686E0,7.363691E0,0E0,0E0,5.561009E0,0E0,0E0],"parents":[2147483647,0,0,1,1,4,4],"right_children":[2,4,-1,-1,6,-1,-1],"split_conditions":[1.7972348E0,-9.5811474E-1,-1.830061E-2,1.9663032E-2,-1.4455192E0,1.0796591E-2,-9.799664E-4],"split_indices":[0,27,0,0,23,0,0],"split_type":[0,0,0,0,0,0,0],"sum_hessian":[2.6501343E2,2.5563416E2,9.379274E0,6.215332E0,2.4941882E2,1.5704503E1,2.3371432E2],"tree_param":{"num_deleted":"0","num_feature":"60","num_nodes":"7","size_leaf_vector":"1"}},{"base_weights":[-4.420932E-2,-7.188764E-2,1.7708927E-2,-4.1647177E-2,-1.9660454E-2,6.904392E-3,-2.3119813E-3],"categories":[],"categories_nodes":[],"categories_segments":[],"categories_sizes":[],"default_left":[0,0,0,0,0,0,0],"id":26,"left_children":[1,3,-1,5,-1,-1,-1],"loss_changes":[6.7166405E0,6.839301E0,0E0,7.1643624E0,0E0,0E0,0E0],"parents":[2147483647,0,0,1,1,3,3],"right_children":[2,4,-1,6,-1,-1,-1],"split_conditions":[1.5387448E0,1.9727585E0,1.7708927E-2,-9.015117E-1,-1.9660454E-2,6.904392E-3,-2.3119813E-3],"split_indices":[22,0,0,57,0,0,0],"split_type":[0,0,0,0,0,0,0],"sum_hessian":[2.6056186E2,2.5452922E2,6.0326524E0,2.4803032E2,6.498904E0,3.859524E1,2.0943507E2],"tree_param":{"num_deleted":"0","num_feature":"60","num_nodes":"7","size_leaf_vector":"1"}},{"base_weights":[2.2771353E-2,2.051353E-2,-9.276018E-3,7.3554283E-1,-4.8051942E-2,2.418186E-2,2.0370777E-3,-3.1416889E-3,5.0503802E-3],"categories":[],"categories_nodes":[],"categories_segments":[],"categories_sizes":[],"default_left":[0,0,0,0,0,0,0,0,0],"id":27,"left_children":[1,-1,3,5,7,-1,-1,-1,-1],"loss_changes":[8.457824E0,0E0,7.2082157E0,3.320745E0,7.92623E0,0E0,0E0,0E0,0E0],"parents":[2147483647,0,0,2,2,3,3,4,4],"right_children":[2,-1,4,6,8,-1,-1,-1,-1],"split_conditions":[-9.473281E-1,2.051353E-2,-1.3723656E0,-6.4973176E-1,4.6612915E-1,2.418186E-2,2.0370777E-3,-3.1416889E-3,5.0503802E-3],"split_indices":[27,0,9,4,21,0,0,0,0],"split_type":[0,0,0,0,0,0,0,0,0],"sum_hessian":[2.564642E2,6.646255E0,2.4981795E2,1.0836942E1,2.38981E2,5.2871547E0,5.549787E0,1.7625822E2,6.2722782E1],"tree_param":{"num_deleted":"0","num_feature":"60","num_nodes":"9","size_leaf_vector":"1"}},{"base_weights":[2.194349E-2,-3.75515E-1,8.059959E-2,-6.924843E-1,2.3577614E-1,-2.2527033E-1,1.9031866E-1,-3.3068818E-3,-2.4566004E-2,1.5742479E-2,-7.2155325E-3,-9.977921E-3,1.002784E-2,4.9667894E-3,-1.1444885E-2],"categories":[],"categories_nodes":[],"categories_segments":[],"categories_sizes":[],"default_left":[0,0,0,0,0,0,0,0,0,0,0,0,0,0,0],"id":28,"left_children":[1,3,5,7,9,11,13,-1,-1,-1,-1,-1,-1,-1,-1],"loss_changes":[5.928523E0,6.636259E0,7.546755E0,5.7092695E0,4.469775E0,1.2151804E1,7.4819508E0,0E0,0E0,0E0,0E0,0E0,0E0,0E0,0E0],"parents":[2147483647,0,0,1,1,2,2,3,3,4,4,5,5,6,6],"right_children":[2,4,6,8,10,12,14,-1,-1,-1,-1,-1,-1,-1,-1],"split_conditions":[-6.3496405E-1,2.5858188E-1,-4.6774274E-1,1.4483815E-1,3.7526262E-1,4.113927E-1,6.6133916E-1,-3.3068818E-3,-2.4566004E-2,1.5742479E-2,-7.2155325E-3,-9.977921E-3,1.002784E-2,4.9667894E-3,-1.1444885E-2],"split_indices":[34,40,42,47,53,46,38,0,0,0,0,0,0,0,0],"split_type":[0,0,0,0,0,0,0,0,0,0,0,0,0,0,0],"sum_hessian":[2.527473E2,3.1132267E1,2.2161504E2,2.053205E1,1.0600218E1,5.773028E1,1.6388475E2,1.1480378E1,9.051672E0,5.3904777E0,5.20974E0,4.2429848E1,1.5300433E1,1.5341977E2,1.0464978E1],"tree_param":{"num_deleted":"0","num_feature":"60","num_nodes":"15","size_leaf_vector":"1"}},{"base_weights":[3.1138651E-2,7.497476E-2,-6.5352255E-1,3.349118E-2,8.745554E-1,-0E0,-2.1193573E-2,1.5398563E-3,-1.3825438E-2,4.50509E-3,2.650962E-2],"categories":[],"categories_nodes":[],"categories_segments":[],"categories_sizes":[],"default_left":[0,0,0,0,0,0,0,0,0,0,0],"id":29,"left_children":[1,3,5,7,9,-1,-1,-1,-1,-1,-1],"loss_changes":[7.7536798E0,7.9386544E0,4.011853E0,7.378973E0,2.7845154E0,0E0,0E0,0E0,0E0,0E0,0E0],"parents":[2147483647,0,0,1,1,2,2,3,3,4,4],"right_children":[2,4,6,8,10,-1,-1,-1,-1,-1,-1],"split_conditions":[1.5535247E0,1.3037083E0,4.3286067E-1,9.1713554E-1,1.8703638E-1,-0E0,-2.1193573E-2,1.5398563E-3,-1.3825438E-2,4.50509E-3,2.650962E-2],"split_indices":[0,2,54,45,42,0,0,0,0,0,0],"split_type":[0,0,0,0,0,0,0,0,0,0,0],"sum_hessian":[2.572877E2,2.432671E2,1.402059E1,2.329326E2,1.0334505E1,6.044778E0,7.975812E0,2.2120319E2,1.1729411E1,5.2937856E0,5.04072E0],"tree_param":{"num_deleted":"0","num_feature":"60","num_nodes":"11","size_leaf_vector":"1"}},{"base_weights":[1.2224826E-2,4.9269922E-2,-7.004076E-1,6.7772603E-1,3.3450858E-3,-1.8988766E-2,-6.1517064E-3,-2.60737E-3,2.1361474E-2,1.9904242E-3,-6.0686413E-3],"categories":[],"categories_nodes":[],"categories_segments":[],"categories_sizes":[],"default_left":[0,0,0,0,0,0,0,0,0,0,0],"id":30,"left_children":[1,3,5,7,9,-1,-1,-1,-1,-1,-1],"loss_changes":[6.8009133E0,7.0561748E0,6.171789E-1,5.607317E0,6.8884416E0,0E0,0E0,0E0,0E0,0E0,0E0],"parents":[2147483647,0,0,1,1,2,2,3,3,4,4],"right_children":[2,4,6,8,10,-1,-1,-1,-1,-1,-1],"split_conditions":[6.6133916E-1,-1.8982943E0,-9.7874355E-1,-9.9177164E-1,4.2162263E-1,-1.8988766E-2,-6.1517064E-3,-2.60737E-3,2.1361474E-2,1.9904242E-3,-6.0686413E-3],"split_indices":[38,43,50,10,32,0,0,0,0,0,0],"split_type":[0,0,0,0,0,0,0,0,0,0,0],"sum_hessian":[2.5785382E2,2.4663942E2,1.1214389E1,1.5168242E1,2.3147118E2,5.3288503E0,5.885539E0,5.140722E0,1.0027521E1,1.7736783E2,5.410334E1],"tree_param":{"num_deleted":"0","num_feature":"60","num_nodes":"11","size_leaf_vector":"1"}},{"base_weights":[-2.8191714E-2,4.2196824E-3,-1.9231953E-2,3.989105E-1,-6.4026624E-2,1.5198006E-2,7.6911435E-4,8.0341427E-4,-9.330313E-3],"categories":[],"categories_nodes":[],"categories_segments":[],"categories_sizes":[],"default_left":[0,0,0,0,0,0,0,0,0],"id":31,"left_children":[1,3,-1,5,7,-1,-1,-1,-1],"loss_changes":[8.048439E0,6.9213433E0,0E0,4.771493E0,9.202699E0,0E0,0E0,0E0,0E0],"parents":[2147483647,0,0,1,1,3,3,4,4],"right_children":[2,4,-1,6,8,-1,-1,-1,-1],"split_conditions":[1.9727585E0,-9.015117E-1,-1.9231953E-2,9.294416E-1,4.432318E-1,1.5198006E-2,7.6911435E-4,8.0341427E-4,-9.330313E-3],"split_indices":[0,57,0,37,32,0,0,0,0],"split_type":[0,0,0,0,0,0,0,0,0],"sum_hessian":[2.5958975E2,2.521661E2,7.423648E0,3.6427E1,2.157391E2,1.7161564E1,1.9265436E1,1.7215009E2,4.3589024E1],"tree_param":{"num_deleted":"0","num_feature":"60","num_nodes":"9","size_leaf_vector":"1"}},{"base_weights":[-4.662932E-2,2.0519175E-2,-8.332944E-2,-3.7939766E-1,3.445308E-2,-1.0287537E-3,-1.08250985E-2,3.1586578E-3,-8.809811E-3],"categories":[],"categories_nodes":[],"categories_segments":[],"categories_sizes":[],"default_left":[0,0,0,0,0,0,0,0,0],"id":32,"left_children":[1,-1,3,5,7,-1,-1,-1,-1],"loss_changes":[9.947804E0,0E0,8.656661E0,3.6146078E0,1.0450625E1,0E0,0E0,0E0,0E0],"parents":[2147483647,0,0,2,2,3,3,4,4],"right_children":[2,-1,4,6,8,-1,-1,-1,-1],"split_conditions":[-9.473281E-1,2.0519175E-2,-5.1448095E-1,-1.520886E-1,7.212429E-1,-1.0287537E-3,-1.08250985E-2,3.1586578E-3,-8.809811E-3],"split_indices":[27,0,19,22,10,0,0,0,0],"split_type":[0,0,0,0,0,0,0,0,0],"sum_hessian":[2.5154674E2,6.8493533E0,2.4469739E2,6.905545E1,1.7564194E2,2.3778399E1,4.5277054E1,1.4044492E2,3.519701E1],"tree_param":{"num_deleted":"0","num_feature":"60","num_nodes":"9","size_leaf_vector":"1"}},{"base_weights":[2.3626953E-2,-1.1708514E-1,2.007774E-1,1.1949885E-2,-1.793488E-1,4.210023E-1,-1.3967359E-1,1.1443293E-2,-4.7450704E-3,1.1428642E-2,-1.8075649E-3,-1.2887795E-2,5.5683563E-3],"categories":[],"categories_nodes":[],"categories_segments":[],"categories_sizes":[],"default_left":[0,0,0,0,0,0,0,0,0,0,0,0,0],"id":33,"left_children":[1,3,5,-1,7,9,11,-1,-1,-1,-1,-1,-1],"loss_changes":[6.4851074E0,6.5226803E0,8.778431E0,0E0,5.992061E0,5.5868177E0,1.0065475E1,0E0,0E0,0E0,0E0,0E0,0E0],"parents":[2147483647,0,0,1,1,2,2,4,4,5,5,6,6],"right_children":[2,4,6,-1,8,10,12,-1,-1,-1,-1,-1,-1],"split_conditions":[7.7594735E-2,-1.1757134E0,3.684519E-1,1.1949885E-2,-9.067494E-1,1.0329988E0,6.4070034E-1,1.1443293E-2,-4.7450704E-3,1.1428642E-2,-1.8075649E-3,-1.2887795E-2,5.5683563E-3],"split_indices":[18,35,50,0,27,37,20,0,0,0,0,0,0],"split_type":[0,0,0,0,0,0,0,0,0,0,0,0,0],"sum_hessian":[2.567436E2,1.428993E2,1.1384427E2,1.0226762E1,1.3267255E2,6.9180016E1,4.4664253E1,8.352883E0,1.24319664E2,5.354591E1,1.5634105E1,2.0030495E1,2.4633759E1],"tree_param":{"num_deleted":"0","num_feature":"60","num_nodes":"13","size_leaf_vector":"1"}},{"base_weights":[8.658049E-3,-1.7954092E-1,1.4736551E-1,9.029762E-2,-3.7693936E-1,3.2915547E-1,-1.8669346E-1,-1.1059594E-2,6.011385E-3,2.1336675E-3,-1.1322977E-2,1.6202406E-3,1.3290074E-2,1.79763E-3,-8.5614445E-3],"categories":[],"categories_nodes":[],"categories_segments":[],"categories_sizes":[],"default_left":[0,0,0,0,0,0,0,0,0,0,0,0,0,0,0],"id":34,"left_children":[1,3,5,7,9,11,13,-1,-1,-1,-1,-1,-1,-1,-1],"loss_changes":[6.894648E0,6.0446854E0,9.378581E0,6.7158318E0,6.1192284E0,8.098339E0,3.7422566E0,0E0,0E0,0E0,0E0,0E0,0E0,0E0,0E0],"parents":[2147483647,0,0,1,1,2,2,3,3,4,4,5,5,6,6],"right_children":[2,4,6,8,10,12,14,-1,-1,-1,-1,-1,-1,-1,-1],"split_conditions":[-1.2489934E-1,-5.1721406E-1,3.684519E-1,-7.7784383E-1,-4.6145588E-1,2.3397009E-1,4.908955E-1,-1.1059594E-2,6.011385E-3,2.1336675E-3,-1.1322977E-2,1.6202406E-3,1.3290074E-2,1.79763E-3,-8.5614445E-3],"split_indices":[18,1,50,58,58,14,4,0,0,0,0,0,0,0,0],"split_type":[0,0,0,0,0,0,0,0,0,0,0,0,0,0,0],"sum_hessian":[2.6128076E2,1.10216064E2,1.510647E2,4.6586914E1,6.362915E1,9.813313E1,5.2931564E1,1.0698677E1,3.5888237E1,1.7854424E1,4.5774727E1,5.772715E1,4.0405983E1,2.4816507E1,2.8115057E1],"tree_param":{"num_deleted":"0","num_feature":"60","num_nodes":"15","size_leaf_vector":"1"}},{"base_weights":[2.0718426E-2,-9.226941E-2,3.6262587E-1,5.9711793E-3,-7.0110965E-1,5.3345674E-1,-2.46965E-1,-2.6169266E-3,1.047684E-2,7.2137592E-3,-2.0236602E-2,3.4451555E-3,1.9947737E-2,-1.9878455E-2,5.9765372E-3],"categories":[],"categories_nodes":[],"categories_segments":[],"categories_sizes":[],"default_left":[0,0,0,0,0,0,0,0,0,0,0,0,0,0,0],"id":35,"left_children":[1,3,5,7,9,11,13,-1,-1,-1,-1,-1,-1,-1,-1],"loss_changes":[1.0146688E1,1.1864724E1,7.0395985E0,1.2241453E1,9.727336E0,8.224319E0,6.715837E0,0E0,0E0,0E0,0E0,0E0,0E0,0E0,0E0],"parents":[2147483647,0,0,1,1,2,2,3,3,4,4,5,5,6,6],"right_children":[2,4,6,8,10,12,14,-1,-1,-1,-1,-1,-1,-1,-1],"split_conditions":[4.6612915E-1,3.684519E-1,9.429719E-1,2.3450041E-1,-4.3464446E-1,2.0635372E-1,1.1073395E0,-2.6169266E-3,1.047684E-2,7.2137592E-3,-2.0236602E-2,3.4451555E-3,1.9947737E-2,-1.9878455E-2,5.9765372E-3],"split_indices":[21,50,16,13,46,6,44,0,0,0,0,0,0,0,0],"split_type":[0,0,0,0,0,0,0,0,0,0,0,0,0,0,0],"sum_hessian":[2.5880505E2,1.9501596E2,6.3789116E1,1.6898756E2,2.6028397E1,5.0164497E1,1.3624618E1,1.3432997E2,3.4657593E1,5.728598E0,2.0299797E1,2.9543385E1,2.0621113E1,5.348297E0,8.27632E0],"tree_param":{"num_deleted":"0","num_feature":"60","num_nodes":"15","size_leaf_vector":"1"}},{"base_weights":[6.6561215E-3,1.7541798E-2,-1.7678505E-2,-6.147335E-1,2.4391208E-2,2.4246353E-4,-2.0875212E-2,-1.8014137E-3,6.776104E-3],"categories":[],"categories_nodes":[],"categories_segments":[],"categories_sizes":[],"default_left":[0,0,0,0,0,0,0,0,0],"id":36,"left_children":[1,-1,3,5,7,-1,-1,-1,-1],"loss_changes":[5.6430655E0,0E0,6.4779634E0,4.739513E0,8.648475E0,0E0,0E0,0E0,0E0],"parents":[2147483647,0,0,2,2,3,3,4,4],"right_children":[2,-1,4,6,8,-1,-1,-1,-1],"split_conditions":[-9.5811474E-1,1.7541798E-2,-8.3264196E-1,-9.2669046E-1,3.5912326E-1,2.4246353E-4,-2.0875212E-2,-1.8014137E-3,6.776104E-3],"split_indices":[27,0,37,37,21,0,0,0,0],"split_type":[0,0,0,0,0,0,0,0,0],"sum_hessian":[2.577285E2,5.7474017E0,2.5198108E2,1.5477066E1,2.3650401E2,6.738844E0,8.738222E0,1.738188E2,6.2685223E1],"tree_param":{"num_deleted":"0","num_feature":"60","num_nodes":"9","size_leaf_vector":"1"}},{"base_weights":[4.4325576E-3,1.2441071E-1,-3.5014784E-1,1.6379134E-1,-1.314561E-2,8.1945635E-2,-6.3484776E-1,8.454575E-3,3.9531232E-4,7.519689E-3,-1.5520841E-2,-6.440006E-4,-1.7043775E-2],"categories":[],"categories_nodes":[],"categories_segments":[],"categories_sizes":[],"default_left":[0,0,0,0,0,0,0,0,0,0,0,0,0],"id":37,"left_children":[1,3,5,7,-1,9,11,-1,-1,-1,-1,-1,-1],"loss_changes":[1.0960758E1,6.040307E0,8.160556E0,6.838558E0,0E0,7.176035E0,5.010474E0,0E0,0E0,0E0,0E0,0E0,0E0],"parents":[2147483647,0,0,1,1,2,2,3,3,5,5,6,6],"right_children":[2,4,6,8,-1,10,12,-1,-1,-1,-1,-1,-1],"split_conditions":[4.2162263E-1,6.6133916E-1,-5.490551E-1,-1.9461867E-1,-1.314561E-2,9.4966274E-1,-4.4292474E-1,8.454575E-3,3.9531232E-4,7.519689E-3,-1.5520841E-2,-6.440006E-4,-1.7043775E-2],"split_indices":[32,38,8,1,0,59,59,0,0,0,0,0,0],"split_type":[0,0,0,0,0,0,0,0,0,0,0,0,0],"sum_hessian":[2.5540616E2,1.9187784E2,6.3528313E1,1.8398642E2,7.8914165E0,2.5447552E1,3.808076E1,6.4350105E1,1.1963632E2,1.9710217E1,5.737336E0,1.0732858E1,2.7347902E1],"tree_param":{"num_deleted":"0","num_feature":"60","num_nodes":"13","size_leaf_vector":"1"}},{"base_weights":[-2.778466E-2,1.8504639E-1,-1.3225916E-1,6.2915987E-1,-2.5333753E-2,-7.631518E-1,-5.3984497E-2,3.2499924E-3,1.8634174E-2,1.7528615E-3,-1.910989E-2,-2.3256576E-2,-4.453644E-3,1.1218357E-2,-3.4963079E-3],"categories":[],"categories_nodes":[],"categories_segments":[],"categories_sizes":[],"default_left":[0,0,0,0,0,0,0,0,0,0,0,0,0,0,0],"id":38,"left_children":[1,3,5,7,9,11,13,-1,-1,-1,-1,-1,-1,-1,-1],"loss_changes":[5.8557935E0,8.190514E0,8.562456E0,3.5721092E0,6.5468473E0,3.5564594E0,1.1932333E1,0E0,0E0,0E0,0E0,0E0,0E0,0E0,0E0],"parents":[2147483647,0,0,1,1,2,2,3,3,4,4,5,5,6,6],"right_children":[2,4,6,8,10,12,14,-1,-1,-1,-1,-1,-1,-1,-1],"split_conditions":[-3.826843E-1,-2.8725898E-1,-9.18112E-1,8.851836E-1,1.5535247E0,-4.9432737E-1,-4.7247306E-1,3.2499924E-3,1.8634174E-2,1.7528615E-3,-1.910989E-2,-2.3256576E-2,-4.453644E-3,1.1218357E-2,-3.4963079E-3],"split_indices":[11,32,50,42,0,21,53,0,0,0,0,0,0,0,0],"split_type":[0,0,0,0,0,0,0,0,0,0,0,0,0,0,0],"sum_hessian":[2.6055942E2,8.493692E1,1.756225E2,2.6571491E1,5.8365433E1,1.7724274E1,1.5789822E2,1.1553096E1,1.5018395E1,5.3111893E1,5.25354E0,9.036774E0,8.687499E0,2.4830814E1,1.3306741E2],"tree_param":{"num_deleted":"0","num_feature":"60","num_nodes":"15","size_leaf_vector":"1"}},{"base_weights":[-3.291534E-2,-6.245872E-2,1.6052118E-2,-1.7542688E-2,-7.611605E-1,2.7730555E-4,-1.8470172E-2,-9.547033E-4,-2.4862053E-2],"categories":[],"categories_nodes":[],"categories_segments":[],"categories_sizes":[],"default_left":[0,0,0,0,0,0,0,0,0],"id":39,"left_children":[1,3,-1,5,7,-1,-1,-1,-1],"loss_changes":[6.433606E0,7.8564944E0,0E0,7.0147853E0,4.925523E0,0E0,0E0,0E0,0E0],"parents":[2147483647,0,0,1,1,3,3,4,4],"right_children":[2,4,-1,6,8,-1,-1,-1,-1],"split_conditions":[1.4057214E0,9.575198E-1,1.6052118E-2,1.1403469E0,5.159418E-1,2.7730555E-4,-1.8470172E-2,-9.547033E-4,-2.4862053E-2],"split_indices":[23,45,0,22,19,0,0,0,0],"split_type":[0,0,0,0,0,0,0,0,0],"sum_hessian":[2.605889E2,2.5320323E2,7.3856716E0,2.3955574E2,1.36474905E1,2.3279663E2,6.7591033E0,6.2924724E0,7.355018E0],"tree_param":{"num_deleted":"0","num_feature":"60","num_nodes":"9","size_leaf_vector":"1"}},{"base_weights":[-5.573593E-3,6.77808E-1,-4.45736E-2,1.3333416E-3,2.1057226E-2,4.5578375E-1,-8.7072104E-2,1.7753541E-2,-4.5479327E-3,2.5854912E-3,-4.5418357E-3],"categories":[],"categories_nodes":[],"categories_segments":[],"categories_sizes":[],"default_left":[0,0,0,0,0,0,0,0,0,0,0],"id":40,"left_children":[1,3,5,-1,-1,7,9,-1,-1,-1,-1],"loss_changes":[6.872596E0,2.9144535E0,5.2633777E0,0E0,0E0,6.1042695E0,7.010762E0,0E0,0E0,0E0,0E0],"parents":[2147483647,0,0,1,1,2,2,5,5,6,6],"right_children":[2,4,6,-1,-1,8,10,-1,-1,-1,-1],"split_conditions":[-1.5732478E0,-1.748977E-1,-1.1757134E0,1.3333416E-3,2.1057226E-2,2.2240475E-1,-1.8514295E-1,1.7753541E-2,-4.5479327E-3,2.5854912E-3,-4.5418357E-3],"split_indices":[23,55,35,0,0,25,57,0,0,0,0],"split_type":[0,0,0,0,0,0,0,0,0,0,0],"sum_hessian":[2.582288E2,1.2407173E1,2.4582162E2,5.54245E0,6.864723E0,1.782632E1,2.279953E2,1.0781214E1,7.0451074E0,8.92058E1,1.3878949E2],"tree_param":{"num_deleted":"0","num_feature":"60","num_nodes":"11","size_leaf_vector":"1"}},{"base_weights":[5.286237E-3,1.322737E-1,-1.5757082E-1,1.9054157E-1,-1.6595295E-2,4.191558E-1,-2.735275E-1,-1.244888E-3,7.2801146E-3,1.9132683E-2,-1.1375303E-3,-1.090271E-4,-8.9904815E-3],"categories":[],"categories_nodes":[],"categories_segments":[],"categories_sizes":[],"default_left":[0,0,0,0,0,0,0,0,0,0,0,0,0],"id":41,"left_children":[1,3,5,7,-1,9,11,-1,-1,-1,-1,-1,-1],"loss_changes":[5.362908E0,8.341786E0,7.7202992E0,6.1876388E0,0E0,5.1611195E0,4.427815E0,0E0,0E0,0E0,0E0,0E0,0E0],"parents":[2147483647,0,0,1,1,2,2,3,3,5,5,6,6],"right_children":[2,4,6,8,-1,10,12,-1,-1,-1,-1,-1,-1],"split_conditions":[3.893738E-2,6.5715414E-1,-8.864654E-1,-4.6502542E-1,-1.6595295E-2,1.1293894E0,-2.0269534E-1,-1.244888E-3,7.2801146E-3,1.9132683E-2,-1.1375303E-3,-1.090271E-4,-8.9904815E-3],"split_indices":[30,38,8,30,0,37,23,0,0,0,0,0,0],"split_type":[0,0,0,0,0,0,0,0,0,0,0,0,0],"sum_hessian":[2.564899E2,1.4479164E2,1.1169825E2,1.3780408E2,6.9875617E0,1.7825405E1,9.387285E1,5.61194E1,8.168468E1,7.80906E0,1.0016345E1,3.8154724E1,5.5718124E1],"tree_param":{"num_deleted":"0","num_feature":"60","num_nodes":"13","size_leaf_vector":"1"}},{"base_weights":[-2.4508022E-2,2.0536315E-2,-5.5327922E-2,5.5960196E-1,-8.958486E-2,1.7568422E-2,3.3507604E-5,3.5007505E-4,-5.947912E-3],"categories":[],"categories_nodes":[],"categories_segments":[],"categories_sizes":[],"default_left":[0,0,0,0,0,0,0,0,0],"id":42,"left_children":[1,-1,3,5,7,-1,-1,-1,-1],"loss_changes":[8.456699E0,0E0,5.4172606E0,2.273231E0,5.4999285E0,0E0,0E0,0E0,0E0],"parents":[2147483647,0,0,2,2,3,3,4,4],"right_children":[2,-1,4,6,8,-1,-1,-1,-1],"split_conditions":[-9.473281E-1,2.0536315E-2,-1.5825807E0,8.8557184E-1,2.1714081E-1,1.7568422E-2,3.3507604E-5,3.5007505E-4,-5.947912E-3],"split_indices":[29,0,6,59,59,0,0,0,0],"split_type":[0,0,0,0,0,0,0,0,0],"sum_hessian":[2.6136295E2,5.924523E0,2.5543842E2,1.2034316E1,2.434041E2,6.938753E0,5.095563E0,1.6105923E2,8.2344864E1],"tree_param":{"num_deleted":"0","num_feature":"60","num_nodes":"9","size_leaf_vector":"1"}},{"base_weights":[1.3717355E-2,5.726742E-2,-6.811357E-1,-2.0402247E-2,4.9027032E-1,-2.093942E-2,-7.375348E-5,4.751769E-4,-2.1754019E-2,-7.978349E-3,1.3201581E-2],"categories":[],"categories_nodes":[],"categories_segments":[],"categories_sizes":[],"default_left":[0,0,0,0,0,0,0,0,0,0,0],"id":43,"left_children":[1,3,5,7,9,-1,-1,-1,-1,-1,-1],"loss_changes":[7.632465E0,8.157767E0,3.518756E0,9.844807E0,5.9996443E0,0E0,0E0,0E0,0E0,0E0,0E0],"parents":[2147483647,0,0,1,1,2,2,3,3,4,4],"right_children":[2,4,6,8,10,-1,-1,-1,-1,-1,-1],"split_conditions":[4.9117973E-1,9.093752E-1,4.3979546E-1,9.429719E-1,8.6303115E-2,-2.093942E-2,-7.375348E-5,4.751769E-4,-2.1754019E-2,-7.978349E-3,1.3201581E-2],"split_indices":[50,41,12,16,5,0,0,0,0,0,0],"split_type":[0,0,0,0,0,0,0,0,0,0,0],"sum_hessian":[2.5188098E2,2.3852371E2,1.3357277E1,2.0316415E2,3.535956E1,7.9983788E0,5.358898E0,1.9636531E2,6.7988434E0,5.2036996E0,3.0155857E1],"tree_param":{"num_deleted":"0","num_feature":"60","num_nodes":"11","size_leaf_vector":"1"}},{"base_weights":[-6.009514E-3,2.0225955E-2,-3.6567777E-2,-7.00645E-2,1.5730925E-2,-7.4263953E-4,-1.724575E-2],"categories":[],"categories_nodes":[],"categories_segments":[],"categories_sizes":[],"default_left":[0,0,0,0,0,0,0],"id":44,"left_children":[1,-1,3,5,-1,-1,-1],"loss_changes":[7.906669E0,0E0,6.905215E0,6.158734E0,0E0,0E0,0E0],"parents":[2147483647,0,0,2,2,3,3],"right_children":[2,-1,4,6,-1,-1,-1],"split_conditions":[-9.5811474E-1,2.0225955E-2,1.4057214E0,1.0713737E0,1.5730925E-2,-7.4263953E-4,-1.724575E-2],"split_indices":[29,0,23,23,0,0,0],"split_type":[0,0,0,0,0,0,0],"sum_hessian":[2.5575768E2,5.911446E0,2.4984624E2,2.4157007E2,8.27617E0,2.3361826E2,7.951809E0],"tree_param":{"num_deleted":"0","num_feature":"60","num_nodes":"7","size_leaf_vector":"1"}},{"base_weights":[1.9361455E-2,-7.95999E-3,1.9516971E-2,5.667854E-2,-4.57721E-1,9.494111E-3,-6.336397E-5,2.2508597E-3,-1.2305475E-2],"categories":[],"categories_nodes":[],"categories_segments":[],"categories_sizes":[],"default_left":[0,0,0,0,0,0,0,0,0],"id":45,"left_children":[1,3,-1,5,7,-1,-1,-1,-1],"loss_changes":[7.037838E0,7.5802546E0,0E0,5.7279778E0,3.12562E0,0E0,0E0,0E0,0E0],"parents":[2147483647,0,0,1,1,3,3,4,4],"right_children":[2,4,-1,6,8,-1,-1,-1,-1],"split_conditions":[1.5387448E0,9.7453743E-1,1.9516971E-2,-8.864654E-1,-6.4567345E-1,9.494111E-3,-6.336397E-5,2.2508597E-3,-1.2305475E-2],"split_indices":[22,0,0,8,9,0,0,0,0],"split_type":[0,0,0,0,0,0,0,0,0],"sum_hessian":[2.6181097E2,2.5583392E2,5.9770403E0,2.2454092E2,3.1293001E1,2.7132174E1,1.9740875E2,6.660762E0,2.4632238E1],"tree_param":{"num_deleted":"0","num_feature":"60","num_nodes":"9","size_leaf_vector":"1"}},{"base_weights":[-9.338665E-4,4.279098E-2,-7.876391E-1,-5.0889112E-2,5.4746294E-1,-2.0934725E-2,-4.887317E-3,-2.7248007E-3,6.3360515E-3,1.5912961E-2,-3.8215837E-3],"categories":[],"categories_nodes":[],"categories_segments":[],"categories_sizes":[],"default_left":[0,0,0,0,0,0,0,0,0,0,0],"id":46,"left_children":[1,3,5,7,9,-1,-1,-1,-1,-1,-1],"loss_changes":[9.089788E0,1.1798991E1,1.3824768E0,6.613674E0,7.479413E0,0E0,0E0,0E0,0E0,0E0,0E0],"parents":[2147483647,0,0,1,1,2,2,3,3,4,4],"right_children":[2,4,6,8,10,-1,-1,-1,-1,-1,-1],"split_conditions":[6.6133916E-1,8.9791113E-1,1.5049529E0,8.4899956E-1,3.4612232E-1,-2.0934725E-2,-4.887317E-3,-2.7248007E-3,6.3360515E-3,1.5912961E-2,-3.8215837E-3],"split_indices":[38,42,37,40,51,0,0,0,0,0,0],"split_type":[0,0,0,0,0,0,0,0,0,0,0],"sum_hessian":[2.5803134E2,2.4560826E2,1.2423094E1,2.0804185E2,3.7566395E1,7.2833443E0,5.1397495E0,1.6994525E2,3.809661E1,2.818277E1,9.383625E0],"tree_param":{"num_deleted":"0","num_feature":"60","num_nodes":"11","size_leaf_vector":"1"}},{"base_weights":[-1.2380738E-2,3.7851465E-1,-9.055432E-2,-1.2106649E-2,5.5620956E-1,-2.9223222E-1,9.884074E-2,-4.8649595E-3,1.470235E-2,-3.4854573E-3,-1.7374327E-2,6.412687E-3,-2.5096163E-3],"categories":[],"categories_nodes":[],"categories_segments":[],"categories_sizes":[],"default_left":[0,0,0,0,0,0,0,0,0,0,0,0,0],"id":47,"left_children":[1,3,5,-1,7,9,11,-1,-1,-1,-1,-1,-1],"loss_changes":[7.671667E0,7.7992277E0,8.113569E0,0E0,5.532052E0,6.601407E0,5.52783E0,0E0,0E0,0E0,0E0,0E0,0E0],"parents":[2147483647,0,0,1,1,2,2,4,4,5,5,6,6],"right_children":[2,4,6,-1,8,10,12,-1,-1,-1,-1,-1,-1],"split_conditions":[-8.750657E-1,-2.0017607E0,-9.302815E-2,-1.2106649E-2,-3.9088354E-1,3.6885637E-1,-2.0463275E-2,-4.8649595E-3,1.470235E-2,-3.4854573E-3,-1.7374327E-2,6.412687E-3,-2.5096163E-3],"split_indices":[22,0,40,0,46,59,54,0,0,0,0,0,0],"split_type":[0,0,0,0,0,0,0,0,0,0,0,0,0],"sum_hessian":[2.492862E2,4.0265045E1,2.0902115E2,5.4784403E0,3.4786606E1,1.0121722E2,1.0780393E2,6.1092596E0,2.8677345E1,8.586192E1,1.535529E1,5.4219807E1,5.3584126E1],"tree_param":{"num_deleted":"0","num_feature":"60","num_nodes":"13","size_leaf_vector":"1"}},{"base_weights":[-2.9834338E-2,1.1814725E-2,-6.799147E-1,-2.3918105E-2,2.0242311E-2,-2.3583457E-2,-0E0,8.8399025E-3,-1.9546028E-3],"categories":[],"categories_nodes":[],"categories_segments":[],"categories_sizes":[],"default_left":[0,0,0,0,0,0,0,0,0],"id":48,"left_children":[1,3,5,7,-1,-1,-1,-1,-1],"loss_changes":[7.1299987E0,8.936189E0,5.4273825E0,8.188386E0,0E0,0E0,0E0,0E0,0E0],"parents":[2147483647,0,0,1,1,2,2,3,3],"right_children":[2,4,6,8,-1,-1,-1,-1,-1],"split_conditions":[1.5535247E0,1.6871476E0,5.2137876E-1,-8.3313733E-1,2.0242311E-2,-2.3583457E-2,-0E0,8.8399025E-3,-1.9546028E-3],"split_indices":[0,39,3,12,0,0,0,0,0],"split_type":[0,0,0,0,0,0,0,0,0],"sum_hessian":[2.5769382E2,2.4334528E2,1.4348538E1,2.3622115E2,7.124132E0,7.6725135E0,6.6760254E0,3.1004084E1,2.0521706E2],"tree_param":{"num_deleted":"0","num_feature":"60","num_nodes":"9","size_leaf_vector":"1"}},{"base_weights":[-1.3025145E-2,1.75121E-1,-1.63673E-1,2.2184266E-2,1.11059904E-1,-7.771176E-1,-6.513247E-2,-1.2944356E-3,6.7531117E-3,-2.2895522E-2,-4.231053E-3,-4.1880556E-3,7.81617E-3],"categories":[],"categories_nodes":[],"categories_segments":[],"categories_sizes":[],"default_left":[0,0,0,0,0,0,0,0,0,0,0,0,0],"id":49,"left_children":[1,3,5,-1,7,9,11,-1,-1,-1,-1,-1,-1],"loss_changes":[7.548842E0,6.696823E0,8.763193E0,0E0,4.546825E0,3.629221E0,8.622761E0,0E0,0E0,0E0,0E0,0E0,0E0],"parents":[2147483647,0,0,1,1,2,2,4,4,5,5,6,6],"right_children":[2,4,6,-1,8,10,12,-1,-1,-1,-1,-1,-1],"split_conditions":[-1.0394774E-1,-1.2075435E0,-6.3496405E-1,2.2184266E-2,7.758337E-2,5.2394176E-1,5.3315216E-1,-1.2944356E-3,6.7531117E-3,-2.2895522E-2,-4.231053E-3,-4.1880556E-3,7.81617E-3],"split_indices":[43,35,34,0,38,57,25,0,0,0,0,0,0],"split_type":[0,0,0,0,0,0,0,0,0,0,0,0,0],"sum_hessian":[2.6337494E2,1.16560974E2,1.4681396E2,5.7599316E0,1.1080104E2,1.8679125E1,1.2813484E2,6.2627403E1,4.8173637E1,1.0228464E1,8.45066E0,9.820164E1,2.9933203E1],"tree_param":{"num_deleted":"0","num_feature":"60","num_nodes":"13","size_leaf_vector":"1"}},{"base_weights":[3.2402083E-2,2.4287158E-1,-1.3249862E-1,8.809469E-1,1.1481975E-1,-5.7883376E-1,-1.1062993E-2,2.381252E-2,2.4699585E-3,6.0980637E-3,-8.439023E-3,-2.2136608E-2,-4.1665076E-3,1.1889193E-2,-2.9397975E-3],"categories":[],"categories_nodes":[],"categories_segments":[],"categories_sizes":[],"default_left":[0,0,0,0,0,0,0,0,0,0,0,0,0,0,0],"id":50,"left_children":[1,3,5,7,9,11,13,-1,-1,-1,-1,-1,-1,-1,-1],"loss_changes":[9.0401945E0,9.05724E0,7.7920337E0,3.974124E0,1.0104344E1,5.490321E0,9.630466E0,0E0,0E0,0E0,0E0,0E0,0E0,0E0,0E0],"parents":[2147483647,0,0,1,1,2,2,3,3,4,4,5,5,6,6],"right_children":[2,4,6,8,10,12,14,-1,-1,-1,-1,-1,-1,-1,-1],"split_conditions":[-1.0394774E-1,-8.864654E-1,-3.6139786E-1,1.2728232E0,4.2162263E-1,-1.5998371E-1,-3.5623795E-1,2.381252E-2,2.4699585E-3,6.0980637E-3,-8.439023E-3,-2.2136608E-2,-4.1665076E-3,1.1889193E-2,-2.9397975E-3],"split_indices":[43,8,28,42,32,59,21,0,0,0,0,0,0,0,0],"split_type":[0,0,0,0,0,0,0,0,0,0,0,0,0,0,0],"sum_hessian":[2.5710724E2,1.1303563E2,1.440716E2,1.7223087E1,9.581254E1,2.9341642E1,1.1472996E2,1.1475516E1,5.747572E0,7.144098E1,2.437156E1,1.0703156E1,1.8638485E1,1.9903023E1,9.4826935E1],"tree_param":{"num_deleted":"0","num_feature":"60","num_nodes":"15","size_leaf_vector":"1"}},{"base_weights":[-3.3457577E-2,-6.390966E-2,1.3078712E-2,-4.059143E-1,7.4885003E-3,-1.4706293E-2,-0E0,1.0948614E-3,-1.2560603E-2],"categories":[],"categories_nodes":[],"categories_segments":[],"categories_sizes":[],"default_left":[0,0,0,0,0,0,0,0,0],"id":51,"left_children":[1,3,-1,5,7,-1,-1,-1,-1],"loss_changes":[5.412698E0,6.1778626E0,0E0,5.893568E0,6.2191133E0,0E0,0E0,0E0,0E0],"parents":[2147483647,0,0,1,1,3,3,4,4],"right_children":[2,4,-1,6,8,-1,-1,-1,-1],"split_conditions":[7.4204296E-1,-4.6445826E-1,1.3078712E-2,1.3210334E-1,9.1713554E-1,-1.4706293E-2,-0E0,1.0948614E-3,-1.2560603E-2],"split_indices":[25,46,0,55,45,0,0,0,0],"split_type":[0,0,0,0,0,0,0,0,0],"sum_hessian":[2.5831122E2,2.4886505E2,9.446171E0,4.2130177E1,2.0673488E2,2.2695772E1,1.9434404E1,1.9392242E2,1.2812461E1],"tree_param":{"num_deleted":"0","num_feature":"60","num_nodes":"9","size_leaf_vector":"1"}},{"base_weights":[-7.828426E-3,1.9977173E-2,-3.77773E-2,5.96884E-1,-7.928566E-2,-1.77767E-4,2.1558829E-2,1.0583091E-2,-2.4715492E-3],"categories":[],"categories_nodes":[],"categories_segments":[],"categories_sizes":[],"default_left":[0,0,0,0,0,0,0,0,0],"id":52,"left_children":[1,-1,3,5,7,-1,-1,-1,-1],"loss_changes":[7.7248697E0,0E0,6.6643724E0,4.6913695E0,6.4842596E0,0E0,0E0,0E0,0E0],"parents":[2147483647,0,0,2,2,3,3,4,4],"right_children":[2,-1,4,6,8,-1,-1,-1,-1],"split_conditions":[-9.5811474E-1,1.9977173E-2,-1.5172074E0,3.7876737E-1,-1.1940384E0,-1.77767E-4,2.1558829E-2,1.0583091E-2,-2.4715492E-3],"split_indices":[27,0,22,21,35,0,0,0,0],"split_type":[0,0,0,0,0,0,0,0,0],"sum_hessian":[2.5762613E2,5.8962345E0,2.517299E2,1.3999196E1,2.3773071E2,6.710039E0,7.2891564E0,1.478743E1,2.2294328E2],"tree_param":{"num_deleted":"0","num_feature":"60","num_nodes":"9","size_leaf_vector":"1"}},{"base_weights":[-5.8828495E-3,3.62881E-2,-1.698397E-2,7.904194E-2,-6.9985604E-1,5.724681E-5,7.381106E-3,-2.1189118E-2,-2.7573248E-3],"categories":[],"categories_nodes":[],"categories_segments":[],"categories_sizes":[],"default_left":[0,0,0,0,0,0,0,0,0],"id":53,"left_children":[1,3,-1,5,7,-1,-1,-1,-1],"loss_changes":[9.554101E0,7.940599E0,0E0,5.2514925E0,2.3954363E0,0E0,0E0,0E0,0E0],"parents":[2147483647,0,0,1,1,3,3,4,4],"right_children":[2,4,-1,6,8,-1,-1,-1,-1],"split_conditions":[1.841677E0,6.6133916E-1,-1.698397E-2,5.118596E-1,1.3398615E0,5.724681E-5,7.381106E-3,-2.1189118E-2,-2.7573248E-3],"split_indices":[48,38,0,3,31,0,0,0,0],"split_type":[0,0,0,0,0,0,0,0,0],"sum_hessian":[2.624212E2,2.511212E2,1.1300014E1,2.3879514E2,1.232606E1,1.9072757E2,4.806757E1,6.544041E0,5.782019E0],"tree_param":{"num_deleted":"0","num_feature":"60","num_nodes":"9","size_leaf_vector":"1"}},{"base_weights":[-7.173324E-3,1.6083774E-1,-1.6137418E-1,-7.5587146E-2,4.4613233E-1,-7.4957484E-1,-1.6954131E-2,2.6401058E-3,-1.5448925E-2,1.2916431E-2,-4.711004E-3,1.0259359E-3,-2.020281E-2,2.539918E-3,-6.5600146E-3],"categories":[],"categories_nodes":[],"categories_segments":[],"categories_sizes":[],"default_left":[0,0,0,0,0,0,0,0,0,0,0,0,0,0,0],"id":54,"left_children":[1,3,5,7,9,11,13,-1,-1,-1,-1,-1,-1,-1,-1],"loss_changes":[6.679355E0,8.399096E0,1.1322225E1,1.0118982E1,7.942728E0,5.7193556E0,5.01864E0,0E0,0E0,0E0,0E0,0E0,0E0,0E0,0E0],"parents":[2147483647,0,0,1,1,2,2,3,3,4,4,5,5,6,6],"right_children":[2,4,6,8,10,12,14,-1,-1,-1,-1,-1,-1,-1,-1],"split_conditions":[-3.3754088E-2,-4.6629682E-1,6.230729E-4,3.7558763E-3,5.361476E-1,-3.4731174E-1,5.5542266E-1,2.6401058E-3,-1.5448925E-2,1.2916431E-2,-4.711004E-3,1.0259359E-3,-2.020281E-2,2.539918E-3,-6.5600146E-3],"split_indices":[8,28,7,2,27,0,13,0,0,0,0,0,0,0,0],"split_type":[0,0,0,0,0,0,0,0,0,0,0,0,0,0,0],"sum_hessian":[2.5481012E2,1.21447975E2,1.3336215E2,6.6727455E1,5.4720524E1,2.484565E1,1.085165E2,5.218291E1,1.4544542E1,4.255391E1,1.2166613E1,6.2536225E0,1.8592028E1,7.446157E1,3.405493E1],"tree_param":{"num_deleted":"0","num_feature":"60","num_nodes":"15","size_leaf_vector":"1"}},{"base_weights":[-6.0632005E-2,-9.294124E-2,1.3103661E-2,-3.9398143E-1,-2.3800597E-2,-1.2821764E-3,-1.6615836E-2,1.3333157E-2,-1.4485131E-3],"categories":[],"categories_nodes":[],"categories_segments":[],"categories_sizes":[],"default_left":[0,0,0,0,0,0,0,0,0],"id":55,"left_children":[1,3,-1,5,7,-1,-1,-1,-1],"loss_changes":[5.985986E0,5.1033297E0,0E0,6.4114456E0,6.8454285E0,0E0,0E0,0E0,0E0],"parents":[2147483647,0,0,1,1,3,3,4,4],"right_children":[2,4,-1,6,8,-1,-1,-1,-1],"split_conditions":[7.4204296E-1,-4.6445826E-1,1.3103661E-2,-5.5710214E-1,-1.5732478E0,-1.2821764E-3,-1.6615836E-2,1.3333157E-2,-1.4485131E-3],"split_indices":[25,46,0,46,23,0,0,0,0],"split_type":[0,0,0,0,0,0,0,0,0],"sum_hessian":[2.5702332E2,2.4737262E2,9.65069E0,4.4481613E1,2.02891E2,2.6518665E1,1.796295E1,1.189113E1,1.9099988E2],"tree_param":{"num_deleted":"0","num_feature":"60","num_nodes":"9","size_leaf_vector":"1"}},{"base_weights":[2.0994391E-2,6.739471E-1,-1.9195015E-2,-0E0,2.0670785E-2,2.1198834E-1,-1.2824221E-1,1.1590938E-2,-8.073606E-5,2.5372952E-4,-7.445012E-3],"categories":[],"categories_nodes":[],"categories_segments":[],"categories_sizes":[],"default_left":[0,0,0,0,0,0,0,0,0,0,0],"id":56,"left_children":[1,3,5,-1,-1,7,9,-1,-1,-1,-1],"loss_changes":[6.870714E0,3.6528053E0,6.1709223E0,0E0,0E0,6.300707E0,5.801775E0,0E0,0E0,0E0,0E0],"parents":[2147483647,0,0,1,1,2,2,5,5,6,6],"right_children":[2,4,6,-1,-1,8,10,-1,-1,-1,-1],"split_conditions":[-1.5172074E0,-3.9273508E-2,-2.944371E-1,-0E0,2.0670785E-2,-9.970069E-2,2.91579E-1,1.1590938E-2,-8.073606E-5,2.5372952E-4,-7.445012E-3],"split_indices":[22,36,59,0,0,43,54,0,0,0,0],"split_type":[0,0,0,0,0,0,0,0,0,0,0],"sum_hessian":[2.5584142E2,1.3678982E1,2.4216243E2,5.3052354E0,8.373747E0,7.672069E1,1.6544174E2,2.7722355E1,4.8998333E1,1.05383865E2,6.0057877E1],"tree_param":{"num_deleted":"0","num_feature":"60","num_nodes":"11","size_leaf_vector":"1"}},{"base_weights":[6.290948E-2,9.177048E-2,-1.3739073E-2,6.580556E-2,1.9510698E-2,1.9293877E-3,-1.1785216E-2],"categories":[],"categories_nodes":[],"categories_segments":[],"categories_sizes":[],"default_left":[0,0,0,0,0,0,0],"id":57,"left_children":[1,3,-1,5,-1,-1,-1],"loss_changes":[5.515814E0,5.408572E0,0E0,4.861024E0,0E0,0E0,0E0],"parents":[2147483647,0,0,1,1,3,3],"right_children":[2,4,-1,6,-1,-1,-1],"split_conditions":[1.7972348E0,1.4057214E0,-1.3739073E-2,1.0583813E0,1.9510698E-2,1.9293877E-3,-1.1785216E-2],"split_indices":[0,23,0,23,0,0,0],"split_type":[0,0,0,0,0,0,0],"sum_hessian":[2.531242E2,2.4520319E2,7.9210086E0,2.3993533E2,5.26786E0,2.3064677E2,9.288551E0],"tree_param":{"num_deleted":"0","num_feature":"60","num_nodes":"7","size_leaf_vector":"1"}}]},"name":"gbtree"},"learner_model_param":{"base_score":"[5.0037694E-1]","boost_from_average":"1","num_class":"0","num_feature":"60","num_target":"1"},"objective":{"name":"binary:logistic","reg_loss_param":{"scale_pos_weight":"0.873142838"}}},"version":[3,3,0]}